{
    "name": "tree",
    "version": "v3",
    "num_class": 3,
    "num_tree_per_iteration": 3,
    "label_index": 0,
    "max_feature_idx": 3,
    "objective": "multiclass num_class:3",
    "average_output": false,
    "feature_names": [
        "sepal_length_(cm)",
        "sepal_width_(cm)",
        "petal_length_(cm)",
        "petal_width_(cm)"
    ],
    "monotone_constraints": [],
    "feature_infos": {
        "sepal_length_(cm)": {
            "min_value": 4.3,
            "max_value": 7.7,
            "values": []
        },
        "sepal_width_(cm)": {
            "min_value": 2,
            "max_value": 4.4,
            "values": []
        },
        "petal_length_(cm)": {
            "min_value": 1,
            "max_value": 6.7,
            "values": []
        },
        "petal_width_(cm)": {
            "min_value": 0.1,
            "max_value": 2.5,
            "values": []
        }
    },
    "tree_info": [
        {
            "tree_index": 0,
            "num_leaves": 3,
            "num_cat": 0,
            "shrinkage": 1,
            "tree_structure": {
                "split_index": 0,
                "split_feature": 2,
                "split_gain": 63.10960006713867,
                "threshold": 2.4500000000000006,
                "decision_type": "<=",
                "default_left": true,
                "missing_type": "None",
                "internal_value": -1.07392,
                "internal_weight": 0,
                "internal_count": 99,
                "left_child": {
                    "leaf_index": 0,
                    "leaf_value": -0.9763587002525419,
                    "leaf_weight": 10.459271252155302,
                    "leaf_count": 31
                },
                "right_child": {
                    "split_index": 1,
                    "split_feature": 1,
                    "split_gain": 3.552710078910475e-15,
                    "threshold": 2.85,
                    "decision_type": "<=",
                    "default_left": true,
                    "missing_type": "None",
                    "internal_value": -1.12455,
                    "internal_weight": 22.9429,
                    "internal_count": 68,
                    "left_child": {
                        "leaf_index": 1,
                        "leaf_value": -1.1245525857370775,
                        "leaf_weight": 10.459271252155306,
                        "leaf_count": 31
                    },
                    "right_child": {
                        "leaf_index": 2,
                        "leaf_value": -1.1245525857370777,
                        "leaf_weight": 12.483646333217619,
                        "leaf_count": 37
                    }
                }
            }
        },
        {
            "tree_index": 1,
            "num_leaves": 3,
            "num_cat": 0,
            "shrinkage": 1,
            "tree_structure": {
                "split_index": 0,
                "split_feature": 1,
                "split_gain": 19.044300079345703,
                "threshold": 2.9500000000000006,
                "decision_type": "<=",
                "default_left": true,
                "missing_type": "None",
                "internal_value": -1.04982,
                "internal_weight": 0,
                "internal_count": 99,
                "left_child": {
                    "leaf_index": 0,
                    "leaf_value": -1.0071810071581992,
                    "leaf_weight": 13.308750092983244,
                    "leaf_count": 39
                },
                "right_child": {
                    "split_index": 1,
                    "split_feature": 0,
                    "split_gain": 2.393160104751587,
                    "threshold": 5.550000000000001,
                    "decision_type": "<=",
                    "default_left": true,
                    "missing_type": "None",
                    "internal_value": -1.08401,
                    "internal_weight": 20.475,
                    "internal_count": 60,
                    "left_child": {
                        "leaf_index": 1,
                        "leaf_value": -1.1011041745491126,
                        "leaf_weight": 10.237500071525576,
                        "leaf_count": 30
                    },
                    "right_child": {
                        "leaf_index": 2,
                        "leaf_value": -1.0669161416188202,
                        "leaf_weight": 10.237500071525572,
                        "leaf_count": 30
                    }
                }
            }
        },
        {
            "tree_index": 2,
            "num_leaves": 3,
            "num_cat": 0,
            "shrinkage": 1,
            "tree_structure": {
                "split_index": 0,
                "split_feature": 3,
                "split_gain": 62.52090072631836,
                "threshold": 1.6500000000000001,
                "decision_type": "<=",
                "default_left": true,
                "missing_type": "None",
                "internal_value": -1.17657,
                "internal_weight": 0,
                "internal_count": 99,
                "left_child": {
                    "split_index": 1,
                    "split_feature": 0,
                    "split_gain": 0.4298270046710968,
                    "threshold": 5.750000000000001,
                    "decision_type": "<=",
                    "default_left": true,
                    "missing_type": "None",
                    "internal_value": -1.21988,
                    "internal_weight": 20.4733,
                    "internal_count": 64,
                    "left_child": {
                        "leaf_index": 0,
                        "leaf_value": -1.2247666017833791,
                        "leaf_weight": 14.075416684150701,
                        "leaf_count": 44
                    },
                    "right_child": {
                        "leaf_index": 2,
                        "leaf_value": -1.20913651388355,
                        "leaf_weight": 6.397916674613952,
                        "leaf_count": 20
                    }
                },
                "right_child": {
                    "leaf_index": 1,
                    "leaf_value": -1.072931462185037,
                    "leaf_weight": 11.196354180574415,
                    "leaf_count": 35
                }
            }
        },
        {
            "tree_index": 3,
            "num_leaves": 3,
            "num_cat": 0,
            "shrinkage": 0.05,
            "tree_structure": {
                "split_index": 0,
                "split_feature": 2,
                "split_gain": 56.000999450683594,
                "threshold": 2.4500000000000006,
                "decision_type": "<=",
                "default_left": true,
                "missing_type": "None",
                "internal_value": 0,
                "internal_weight": 0,
                "internal_count": 99,
                "left_child": {
                    "leaf_index": 0,
                    "leaf_value": 0.08885104724382908,
                    "leaf_weight": 10.90017008781433,
                    "leaf_count": 31
                },
                "right_child": {
                    "split_index": 1,
                    "split_feature": 3,
                    "split_gain": 0.001514869974926114,
                    "threshold": 1.6500000000000001,
                    "decision_type": "<=",
                    "default_left": true,
                    "missing_type": "None",
                    "internal_value": -0.0493697,
                    "internal_weight": 22.3614,
                    "internal_count": 68,
                    "left_child": {
                        "leaf_index": 1,
                        "leaf_value": -0.04978972383970037,
                        "leaf_weight": 10.952411741018297,
                        "leaf_count": 33
                    },
                    "right_child": {
                        "leaf_index": 2,
                        "leaf_value": -0.04896647841796266,
                        "leaf_weight": 11.408977478742598,
                        "leaf_count": 35
                    }
                }
            }
        },
        {
            "tree_index": 4,
            "num_leaves": 3,
            "num_cat": 0,
            "shrinkage": 0.05,
            "tree_structure": {
                "split_index": 0,
                "split_feature": 1,
                "split_gain": 17.0762996673584,
                "threshold": 2.9500000000000006,
                "decision_type": "<=",
                "default_left": true,
                "missing_type": "None",
                "internal_value": 0,
                "internal_weight": 0,
                "internal_count": 99,
                "left_child": {
                    "leaf_index": 0,
                    "leaf_value": 0.03966907618495556,
                    "leaf_weight": 13.558603525161741,
                    "leaf_count": 39
                },
                "right_child": {
                    "split_index": 1,
                    "split_feature": 0,
                    "split_gain": 2.268079996109009,
                    "threshold": 5.550000000000001,
                    "decision_type": "<=",
                    "default_left": true,
                    "missing_type": "None",
                    "internal_value": -0.0329298,
                    "internal_weight": 20.1184,
                    "internal_count": 60,
                    "left_child": {
                        "leaf_index": 1,
                        "leaf_value": -0.049863313388886575,
                        "leaf_weight": 9.972437024116518,
                        "leaf_count": 30
                    },
                    "right_child": {
                        "leaf_index": 2,
                        "leaf_value": -0.01628578718013458,
                        "leaf_weight": 10.14594730734825,
                        "leaf_count": 30
                    }
                }
            }
        },
        {
            "tree_index": 5,
            "num_leaves": 4,
            "num_cat": 0,
            "shrinkage": 0.05,
            "tree_structure": {
                "split_index": 0,
                "split_feature": 3,
                "split_gain": 55.81489944458008,
                "threshold": 1.6500000000000001,
                "decision_type": "<=",
                "default_left": true,
                "missing_type": "None",
                "internal_value": 0,
                "internal_weight": 0,
                "internal_count": 99,
                "left_child": {
                    "split_index": 1,
                    "split_feature": 0,
                    "split_gain": 0.39848199486732483,
                    "threshold": 5.750000000000001,
                    "decision_type": "<=",
                    "default_left": true,
                    "missing_type": "None",
                    "internal_value": -0.0424621,
                    "internal_weight": 20.0562,
                    "internal_count": 64,
                    "left_child": {
                        "split_index": 2,
                        "split_feature": 1,
                        "split_gain": 6.724410195602104e-05,
                        "threshold": 3.150000000000001,
                        "decision_type": "<=",
                        "default_left": true,
                        "missing_type": "None",
                        "internal_value": -0.0472549,
                        "internal_weight": 13.7139,
                        "internal_count": 44,
                        "left_child": {
                            "leaf_index": 0,
                            "leaf_value": -0.047365303921295974,
                            "leaf_weight": 6.87863045930863,
                            "leaf_count": 22
                        },
                        "right_child": {
                            "leaf_index": 3,
                            "leaf_value": -0.04714386720578895,
                            "leaf_weight": 6.835223615169525,
                            "leaf_count": 22
                        }
                    },
                    "right_child": {
                        "leaf_index": 2,
                        "leaf_value": -0.03209858976071383,
                        "leaf_weight": 6.3423268496990195,
                        "leaf_count": 20
                    }
                },
                "right_child": {
                    "leaf_index": 1,
                    "leaf_value": 0.09490018698150791,
                    "leaf_weight": 11.714905500411986,
                    "leaf_count": 35
                }
            }
        },
        {
            "tree_index": 6,
            "num_leaves": 3,
            "num_cat": 0,
            "shrinkage": 0.05,
            "tree_structure": {
                "split_index": 0,
                "split_feature": 2,
                "split_gain": 50.097198486328125,
                "threshold": 2.4500000000000006,
                "decision_type": "<=",
                "default_left": true,
                "missing_type": "None",
                "internal_value": 0,
                "internal_weight": 0,
                "internal_count": 99,
                "left_child": {
                    "leaf_index": 0,
                    "leaf_value": 0.0818030733976496,
                    "leaf_weight": 11.226398169994352,
                    "leaf_count": 31
                },
                "right_child": {
                    "split_index": 1,
                    "split_feature": 3,
                    "split_gain": 0.0047888001427054405,
                    "threshold": 1.6500000000000001,
                    "decision_type": "<=",
                    "default_left": true,
                    "missing_type": "None",
                    "internal_value": -0.0482498,
                    "internal_weight": 21.7524,
                    "internal_count": 68,
                    "left_child": {
                        "leaf_index": 1,
                        "leaf_value": -0.048999444496018174,
                        "leaf_weight": 10.763255566358568,
                        "leaf_count": 33
                    },
                    "right_child": {
                        "leaf_index": 2,
                        "leaf_value": -0.04751561958361001,
                        "leaf_weight": 10.989193379878996,
                        "leaf_count": 35
                    }
                }
            }
        },
        {
            "tree_index": 7,
            "num_leaves": 3,
            "num_cat": 0,
            "shrinkage": 0.05,
            "tree_structure": {
                "split_index": 0,
                "split_feature": 1,
                "split_gain": 15.320799827575684,
                "threshold": 2.9500000000000006,
                "decision_type": "<=",
                "default_left": true,
                "missing_type": "None",
                "internal_value": 0,
                "internal_weight": 0,
                "internal_count": 99,
                "left_child": {
                    "leaf_index": 0,
                    "leaf_value": 0.037008167398478925,
                    "leaf_weight": 13.765322864055632,
                    "leaf_count": 39
                },
                "right_child": {
                    "split_index": 1,
                    "split_feature": 0,
                    "split_gain": 2.162329912185669,
                    "threshold": 5.550000000000001,
                    "decision_type": "<=",
                    "default_left": true,
                    "missing_type": "None",
                    "internal_value": -0.0317186,
                    "internal_weight": 19.7345,
                    "internal_count": 60,
                    "left_child": {
                        "leaf_index": 1,
                        "leaf_value": -0.04857172688220518,
                        "leaf_weight": 9.688651740550997,
                        "leaf_count": 30
                    },
                    "right_child": {
                        "leaf_index": 2,
                        "leaf_value": -0.015464786710749717,
                        "leaf_weight": 10.0458967089653,
                        "leaf_count": 30
                    }
                }
            }
        },
        {
            "tree_index": 8,
            "num_leaves": 4,
            "num_cat": 0,
            "shrinkage": 0.05,
            "tree_structure": {
                "split_index": 0,
                "split_feature": 3,
                "split_gain": 50.24340057373047,
                "threshold": 1.6500000000000001,
                "decision_type": "<=",
                "default_left": true,
                "missing_type": "None",
                "internal_value": 0,
                "internal_weight": 0,
                "internal_count": 99,
                "left_child": {
                    "split_index": 1,
                    "split_feature": 0,
                    "split_gain": 0.37180599570274353,
                    "threshold": 5.750000000000001,
                    "decision_type": "<=",
                    "default_left": true,
                    "missing_type": "None",
                    "internal_value": -0.0416578,
                    "internal_weight": 19.6214,
                    "internal_count": 64,
                    "left_child": {
                        "split_index": 2,
                        "split_feature": 3,
                        "split_gain": 0.0002457970113027841,
                        "threshold": 0.25000000000000006,
                        "decision_type": "<=",
                        "default_left": true,
                        "missing_type": "None",
                        "internal_value": -0.0463824,
                        "internal_weight": 13.3371,
                        "internal_count": 44,
                        "left_child": {
                            "leaf_index": 0,
                            "leaf_value": -0.04616628502779782,
                            "leaf_weight": 6.623222142457967,
                            "leaf_count": 22
                        },
                        "right_child": {
                            "leaf_index": 3,
                            "leaf_value": -0.046595592557228165,
                            "leaf_weight": 6.713828593492508,
                            "leaf_count": 22
                        }
                    },
                    "right_child": {
                        "leaf_index": 2,
                        "leaf_value": -0.03163100137967848,
                        "leaf_weight": 6.284355223178863,
                        "leaf_count": 20
                    }
                },
                "right_child": {
                    "leaf_index": 1,
                    "leaf_value": 0.08777582755388633,
                    "leaf_weight": 12.134384155273436,
                    "leaf_count": 35
                }
            }
        },
        {
            "tree_index": 9,
            "num_leaves": 3,
            "num_cat": 0,
            "shrinkage": 0.05,
            "tree_structure": {
                "split_index": 0,
                "split_feature": 2,
                "split_gain": 45.113399505615234,
                "threshold": 2.4500000000000006,
                "decision_type": "<=",
                "default_left": true,
                "missing_type": "None",
                "internal_value": 0,
                "internal_weight": 0,
                "internal_count": 99,
                "left_child": {
                    "leaf_index": 0,
                    "leaf_value": 0.07599963232824003,
                    "leaf_weight": 11.44814822077751,
                    "leaf_count": 31
                },
                "right_child": {
                    "split_index": 1,
                    "split_feature": 3,
                    "split_gain": 0.00858934037387371,
                    "threshold": 1.6500000000000001,
                    "decision_type": "<=",
                    "default_left": true,
                    "missing_type": "None",
                    "internal_value": -0.0472505,
                    "internal_weight": 21.1248,
                    "internal_count": 68,
                    "left_child": {
                        "leaf_index": 1,
                        "leaf_value": -0.048258223691140245,
                        "leaf_weight": 10.5677028298378,
                        "leaf_count": 33
                    },
                    "right_child": {
                        "leaf_index": 2,
                        "leaf_value": -0.046241791589541024,
                        "leaf_weight": 10.557098180055617,
                        "leaf_count": 35
                    }
                }
            }
        },
        {
            "tree_index": 10,
            "num_leaves": 3,
            "num_cat": 0,
            "shrinkage": 0.05,
            "tree_structure": {
                "split_index": 0,
                "split_feature": 1,
                "split_gain": 13.750100135803223,
                "threshold": 2.9500000000000006,
                "decision_type": "<=",
                "default_left": true,
                "missing_type": "None",
                "internal_value": 0,
                "internal_weight": 0,
                "internal_count": 99,
                "left_child": {
                    "leaf_index": 0,
                    "leaf_value": 0.03461001025392127,
                    "leaf_weight": 13.9317190349102,
                    "leaf_count": 39
                },
                "right_child": {
                    "split_index": 1,
                    "split_feature": 0,
                    "split_gain": 2.0720999240875244,
                    "threshold": 5.550000000000001,
                    "decision_type": "<=",
                    "default_left": true,
                    "missing_type": "None",
                    "internal_value": -0.030551,
                    "internal_weight": 19.3279,
                    "internal_count": 60,
                    "left_child": {
                        "leaf_index": 1,
                        "leaf_value": -0.04739376163590874,
                        "leaf_weight": 9.389607638120653,
                        "leaf_count": 30
                    },
                    "right_child": {
                        "leaf_index": 2,
                        "leaf_value": -0.014637969928284268,
                        "leaf_weight": 9.938244819641112,
                        "leaf_count": 30
                    }
                }
            }
        },
        {
            "tree_index": 11,
            "num_leaves": 4,
            "num_cat": 0,
            "shrinkage": 0.05,
            "tree_structure": {
                "split_index": 0,
                "split_feature": 3,
                "split_gain": 45.53260040283203,
                "threshold": 1.6500000000000001,
                "decision_type": "<=",
                "default_left": true,
                "missing_type": "None",
                "internal_value": 0,
                "internal_weight": 0,
                "internal_count": 99,
                "left_child": {
                    "split_index": 1,
                    "split_feature": 1,
                    "split_gain": 0.35934001207351685,
                    "threshold": 2.85,
                    "decision_type": "<=",
                    "default_left": true,
                    "missing_type": "None",
                    "internal_value": -0.0408931,
                    "internal_weight": 19.1724,
                    "internal_count": 64,
                    "left_child": {
                        "leaf_index": 0,
                        "leaf_value": -0.031540908219130456,
                        "leaf_weight": 6.688112586736685,
                        "leaf_count": 22
                    },
                    "right_child": {
                        "split_index": 2,
                        "split_feature": 3,
                        "split_gain": 0.0021892699878662825,
                        "threshold": 0.25000000000000006,
                        "decision_type": "<=",
                        "default_left": true,
                        "missing_type": "None",
                        "internal_value": -0.0459033,
                        "internal_weight": 12.4843,
                        "internal_count": 42,
                        "left_child": {
                            "leaf_index": 2,
                            "leaf_value": -0.04525814164027661,
                            "leaf_weight": 6.403991073369978,
                            "leaf_count": 22
                        },
                        "right_child": {
                            "leaf_index": 3,
                            "leaf_value": -0.04658283049792022,
                            "leaf_weight": 6.080285757780075,
                            "leaf_count": 20
                        }
                    }
                },
                "right_child": {
                    "leaf_index": 1,
                    "leaf_value": 0.081864672104979,
                    "leaf_weight": 12.46482792496681,
                    "leaf_count": 35
                }
            }
        },
        {
            "tree_index": 12,
            "num_leaves": 3,
            "num_cat": 0,
            "shrinkage": 0.05,
            "tree_structure": {
                "split_index": 0,
                "split_feature": 2,
                "split_gain": 40.854801177978516,
                "threshold": 2.4500000000000006,
                "decision_type": "<=",
                "default_left": true,
                "missing_type": "None",
                "internal_value": 0,
                "internal_weight": 0,
                "internal_count": 99,
                "left_child": {
                    "leaf_index": 0,
                    "leaf_value": 0.07115645237691058,
                    "leaf_weight": 11.575405418872831,
                    "leaf_count": 31
                },
                "right_child": {
                    "split_index": 1,
                    "split_feature": 3,
                    "split_gain": 0.01231939997524023,
                    "threshold": 1.6500000000000001,
                    "decision_type": "<=",
                    "default_left": true,
                    "missing_type": "None",
                    "internal_value": -0.0463565,
                    "internal_weight": 20.4861,
                    "internal_count": 68,
                    "left_child": {
                        "leaf_index": 1,
                        "leaf_value": -0.04756785602540188,
                        "leaf_weight": 10.367318272590639,
                        "leaf_count": 33
                    },
                    "right_child": {
                        "leaf_index": 2,
                        "leaf_value": -0.045115422884306124,
                        "leaf_weight": 10.11876395344734,
                        "leaf_count": 35
                    }
                }
            }
        },
        {
            "tree_index": 13,
            "num_leaves": 3,
            "num_cat": 0,
            "shrinkage": 0.05,
            "tree_structure": {
                "split_index": 0,
                "split_feature": 3,
                "split_gain": 12.618599891662598,
                "threshold": 1.6500000000000001,
                "decision_type": "<=",
                "default_left": true,
                "missing_type": "None",
                "internal_value": 0,
                "internal_weight": 0,
                "internal_count": 99,
                "left_child": {
                    "split_index": 1,
                    "split_feature": 2,
                    "split_gain": 29.40959930419922,
                    "threshold": 2.4500000000000006,
                    "decision_type": "<=",
                    "default_left": true,
                    "missing_type": "None",
                    "internal_value": 0.0196311,
                    "internal_weight": 21.4488,
                    "internal_count": 64,
                    "left_child": {
                        "leaf_index": 0,
                        "leaf_value": -0.04651448037347903,
                        "leaf_weight": 9.42237761616707,
                        "leaf_count": 31
                    },
                    "right_child": {
                        "leaf_index": 2,
                        "leaf_value": 0.0714546056732328,
                        "leaf_weight": 12.026377886533735,
                        "leaf_count": 33
                    }
                },
                "right_child": {
                    "leaf_index": 1,
                    "leaf_value": -0.0452549754980401,
                    "leaf_weight": 11.515724033117293,
                    "leaf_count": 35
                }
            }
        },
        {
            "tree_index": 14,
            "num_leaves": 4,
            "num_cat": 0,
            "shrinkage": 0.05,
            "tree_structure": {
                "split_index": 0,
                "split_feature": 3,
                "split_gain": 41.490299224853516,
                "threshold": 1.6500000000000001,
                "decision_type": "<=",
                "default_left": true,
                "missing_type": "None",
                "internal_value": 0,
                "internal_weight": 0,
                "internal_count": 99,
                "left_child": {
                    "split_index": 1,
                    "split_feature": 1,
                    "split_gain": 0.3498539924621582,
                    "threshold": 2.85,
                    "decision_type": "<=",
                    "default_left": true,
                    "missing_type": "None",
                    "internal_value": -0.0401601,
                    "internal_weight": 18.7145,
                    "internal_count": 64,
                    "left_child": {
                        "leaf_index": 0,
                        "leaf_value": -0.030884563622371148,
                        "leaf_weight": 6.587578684091574,
                        "leaf_count": 22
                    },
                    "right_child": {
                        "split_index": 2,
                        "split_feature": 3,
                        "split_gain": 0.003098550019785762,
                        "threshold": 0.25000000000000006,
                        "decision_type": "<=",
                        "default_left": true,
                        "missing_type": "None",
                        "internal_value": -0.0451987,
                        "internal_weight": 12.127,
                        "internal_count": 42,
                        "left_child": {
                            "leaf_index": 2,
                            "leaf_value": -0.04441453275616597,
                            "leaf_weight": 6.179157614707945,
                            "leaf_count": 22
                        },
                        "right_child": {
                            "leaf_index": 3,
                            "leaf_value": -0.04601328879183893,
                            "leaf_weight": 5.947801560163498,
                            "leaf_count": 20
                        }
                    }
                },
                "right_child": {
                    "leaf_index": 1,
                    "leaf_value": 0.07688662253732736,
                    "leaf_weight": 12.715555280447004,
                    "leaf_count": 35
                }
            }
        },
        {
            "tree_index": 15,
            "num_leaves": 3,
            "num_cat": 0,
            "shrinkage": 0.05,
            "tree_structure": {
                "split_index": 0,
                "split_feature": 2,
                "split_gain": 37.26179885864258,
                "threshold": 2.4500000000000006,
                "decision_type": "<=",
                "default_left": true,
                "missing_type": "None",
                "internal_value": 0,
                "internal_weight": 0,
                "internal_count": 96,
                "left_child": {
                    "leaf_index": 0,
                    "leaf_value": 0.06724243980186982,
                    "leaf_weight": 11.993848115205767,
                    "leaf_count": 32
                },
                "right_child": {
                    "split_index": 1,
                    "split_feature": 3,
                    "split_gain": 0.011370000429451466,
                    "threshold": 1.6500000000000001,
                    "decision_type": "<=",
                    "default_left": true,
                    "missing_type": "None",
                    "internal_value": -0.0456088,
                    "internal_weight": 18.7488,
                    "internal_count": 64,
                    "left_child": {
                        "leaf_index": 1,
                        "leaf_value": -0.046784316197583026,
                        "leaf_weight": 9.808924466371538,
                        "leaf_count": 32
                    },
                    "right_child": {
                        "leaf_index": 2,
                        "leaf_value": -0.04431906756277039,
                        "leaf_weight": 8.939910173416136,
                        "leaf_count": 32
                    }
                }
            }
        },
        {
            "tree_index": 16,
            "num_leaves": 3,
            "num_cat": 0,
            "shrinkage": 0.05,
            "tree_structure": {
                "split_index": 0,
                "split_feature": 2,
                "split_gain": 10.75,
                "threshold": 2.4500000000000006,
                "decision_type": "<=",
                "default_left": true,
                "missing_type": "None",
                "internal_value": 0,
                "internal_weight": 0,
                "internal_count": 96,
                "left_child": {
                    "leaf_index": 0,
                    "leaf_value": -0.04566903969375168,
                    "leaf_weight": 9.437013894319536,
                    "leaf_count": 32
                },
                "right_child": {
                    "split_index": 1,
                    "split_feature": 3,
                    "split_gain": 24.62030029296875,
                    "threshold": 1.6500000000000001,
                    "decision_type": "<=",
                    "default_left": true,
                    "missing_type": "None",
                    "internal_value": 0.0181055,
                    "internal_weight": 22.0402,
                    "internal_count": 64,
                    "left_child": {
                        "leaf_index": 1,
                        "leaf_value": 0.06732828011892131,
                        "leaf_weight": 11.801407635211946,
                        "leaf_count": 32
                    },
                    "right_child": {
                        "leaf_index": 2,
                        "leaf_value": -0.038629427071056766,
                        "leaf_weight": 10.23881161212921,
                        "leaf_count": 32
                    }
                }
            }
        },
        {
            "tree_index": 17,
            "num_leaves": 4,
            "num_cat": 0,
            "shrinkage": 0.05,
            "tree_structure": {
                "split_index": 0,
                "split_feature": 3,
                "split_gain": 32.265098571777344,
                "threshold": 1.6500000000000001,
                "decision_type": "<=",
                "default_left": true,
                "missing_type": "None",
                "internal_value": 0,
                "internal_weight": 0,
                "internal_count": 96,
                "left_child": {
                    "split_index": 1,
                    "split_feature": 1,
                    "split_gain": 0.31230100989341736,
                    "threshold": 2.9500000000000006,
                    "decision_type": "<=",
                    "default_left": true,
                    "missing_type": "None",
                    "internal_value": -0.0392378,
                    "internal_weight": 18.1249,
                    "internal_count": 64,
                    "left_child": {
                        "leaf_index": 0,
                        "leaf_value": -0.03094319393917723,
                        "leaf_weight": 6.97867381572724,
                        "leaf_count": 24
                    },
                    "right_child": {
                        "split_index": 2,
                        "split_feature": 3,
                        "split_gain": 0.0029687900096178055,
                        "threshold": 0.25000000000000006,
                        "decision_type": "<=",
                        "default_left": true,
                        "missing_type": "None",
                        "internal_value": -0.0444311,
                        "internal_weight": 11.1462,
                        "internal_count": 40,
                        "left_child": {
                            "leaf_index": 2,
                            "leaf_value": -0.04363055338031169,
                            "leaf_weight": 5.67973145842552,
                            "leaf_count": 21
                        },
                        "right_child": {
                            "leaf_index": 3,
                            "leaf_value": -0.045262873611990946,
                            "leaf_weight": 5.466481655836105,
                            "leaf_count": 19
                        }
                    }
                },
                "right_child": {
                    "leaf_index": 1,
                    "leaf_value": 0.06690949942582108,
                    "leaf_weight": 11.832818150520323,
                    "leaf_count": 32
                }
            }
        },
        {
            "tree_index": 18,
            "num_leaves": 3,
            "num_cat": 0,
            "shrinkage": 0.05,
            "tree_structure": {
                "split_index": 0,
                "split_feature": 2,
                "split_gain": 33.86909866333008,
                "threshold": 2.4500000000000006,
                "decision_type": "<=",
                "default_left": true,
                "missing_type": "None",
                "internal_value": 0,
                "internal_weight": 0,
                "internal_count": 96,
                "left_child": {
                    "leaf_index": 0,
                    "leaf_value": 0.06365254704766377,
                    "leaf_weight": 11.966974079608919,
                    "leaf_count": 32
                },
                "right_child": {
                    "split_index": 1,
                    "split_feature": 3,
                    "split_gain": 0.008949999697506428,
                    "threshold": 1.6500000000000001,
                    "decision_type": "<=",
                    "default_left": true,
                    "missing_type": "None",
                    "internal_value": -0.0447489,
                    "internal_weight": 18.1106,
                    "internal_count": 64,
                    "left_child": {
                        "leaf_index": 1,
                        "leaf_value": -0.045808885566694144,
                        "leaf_weight": 9.484632700681688,
                        "leaf_count": 32
                    },
                    "right_child": {
                        "leaf_index": 2,
                        "leaf_value": -0.0435833520506064,
                        "leaf_weight": 8.62594038248062,
                        "leaf_count": 32
                    }
                }
            }
        },
        {
            "tree_index": 19,
            "num_leaves": 3,
            "num_cat": 0,
            "shrinkage": 0.05,
            "tree_structure": {
                "split_index": 0,
                "split_feature": 2,
                "split_gain": 9.889829635620117,
                "threshold": 2.4500000000000006,
                "decision_type": "<=",
                "default_left": true,
                "missing_type": "None",
                "internal_value": 0,
                "internal_weight": 0,
                "internal_count": 96,
                "left_child": {
                    "leaf_index": 0,
                    "leaf_value": -0.04473814840307616,
                    "leaf_weight": 9.0908240377903,
                    "leaf_count": 32
                },
                "right_child": {
                    "split_index": 1,
                    "split_feature": 2,
                    "split_gain": 22.174699783325195,
                    "threshold": 5.050000000000001,
                    "decision_type": "<=",
                    "default_left": true,
                    "missing_type": "None",
                    "internal_value": 0.0173029,
                    "internal_weight": 21.8924,
                    "internal_count": 64,
                    "left_child": {
                        "leaf_index": 1,
                        "leaf_value": 0.056030445124395194,
                        "leaf_weight": 13.749011546373369,
                        "leaf_count": 38
                    },
                    "right_child": {
                        "leaf_index": 2,
                        "leaf_value": -0.04808312530566633,
                        "leaf_weight": 8.143404364585875,
                        "leaf_count": 26
                    }
                }
            }
        },
        {
            "tree_index": 20,
            "num_leaves": 4,
            "num_cat": 0,
            "shrinkage": 0.05,
            "tree_structure": {
                "split_index": 0,
                "split_feature": 3,
                "split_gain": 29.009899139404297,
                "threshold": 1.6500000000000001,
                "decision_type": "<=",
                "default_left": true,
                "missing_type": "None",
                "internal_value": 0,
                "internal_weight": 0,
                "internal_count": 96,
                "left_child": {
                    "split_index": 1,
                    "split_feature": 1,
                    "split_gain": 0.3164229989051819,
                    "threshold": 2.9500000000000006,
                    "decision_type": "<=",
                    "default_left": true,
                    "missing_type": "None",
                    "internal_value": -0.0383409,
                    "internal_weight": 17.5342,
                    "internal_count": 64,
                    "left_child": {
                        "leaf_index": 0,
                        "leaf_value": -0.029892834700515472,
                        "leaf_weight": 6.791092246770865,
                        "leaf_count": 24
                    },
                    "right_child": {
                        "split_index": 2,
                        "split_feature": 3,
                        "split_gain": 0.002672449918463826,
                        "threshold": 0.25000000000000006,
                        "decision_type": "<=",
                        "default_left": true,
                        "missing_type": "None",
                        "internal_value": -0.0436812,
                        "internal_weight": 10.7431,
                        "internal_count": 40,
                        "left_child": {
                            "leaf_index": 2,
                            "leaf_value": -0.042905410591044524,
                            "leaf_weight": 5.459733247756956,
                            "leaf_count": 21
                        },
                        "right_child": {
                            "leaf_index": 3,
                            "leaf_value": -0.0444828346670296,
                            "leaf_weight": 5.2833778858184814,
                            "leaf_count": 19
                        }
                    }
                },
                "right_child": {
                    "leaf_index": 1,
                    "leaf_value": 0.0626912221844097,
                    "leaf_weight": 11.945530354976652,
                    "leaf_count": 32
                }
            }
        },
        {
            "tree_index": 21,
            "num_leaves": 3,
            "num_cat": 0,
            "shrinkage": 0.05,
            "tree_structure": {
                "split_index": 0,
                "split_feature": 2,
                "split_gain": 30.903799057006836,
                "threshold": 2.4500000000000006,
                "decision_type": "<=",
                "default_left": true,
                "missing_type": "None",
                "internal_value": 0,
                "internal_weight": 0,
                "internal_count": 96,
                "left_child": {
                    "leaf_index": 0,
                    "leaf_value": 0.06056349350104378,
                    "leaf_weight": 11.871139705181124,
                    "leaf_count": 32
                },
                "right_child": {
                    "split_index": 1,
                    "split_feature": 3,
                    "split_gain": 0.007939940318465233,
                    "threshold": 1.6500000000000001,
                    "decision_type": "<=",
                    "default_left": true,
                    "missing_type": "None",
                    "internal_value": -0.0439815,
                    "internal_weight": 17.4737,
                    "internal_count": 64,
                    "left_child": {
                        "leaf_index": 1,
                        "leaf_value": -0.04499397161884072,
                        "leaf_weight": 9.18536213040352,
                        "leaf_count": 32
                    },
                    "right_child": {
                        "leaf_index": 2,
                        "leaf_value": -0.042859502465337124,
                        "leaf_weight": 8.288297817111014,
                        "leaf_count": 32
                    }
                }
            }
        },
        {
            "tree_index": 22,
            "num_leaves": 3,
            "num_cat": 0,
            "shrinkage": 0.05,
            "tree_structure": {
                "split_index": 0,
                "split_feature": 2,
                "split_gain": 9.144880294799805,
                "threshold": 5.050000000000001,
                "decision_type": "<=",
                "default_left": true,
                "missing_type": "None",
                "internal_value": 0,
                "internal_weight": 0,
                "internal_count": 96,
                "left_child": {
                    "split_index": 1,
                    "split_feature": 2,
                    "split_gain": 20.067100524902344,
                    "threshold": 2.4500000000000006,
                    "decision_type": "<=",
                    "default_left": true,
                    "missing_type": "None",
                    "internal_value": 0.0154118,
                    "internal_weight": 22.5607,
                    "internal_count": 70,
                    "left_child": {
                        "leaf_index": 0,
                        "leaf_value": -0.04388538563248432,
                        "leaf_weight": 8.740278273820882,
                        "leaf_count": 32
                    },
                    "right_child": {
                        "leaf_index": 2,
                        "leaf_value": 0.052912388271386446,
                        "leaf_weight": 13.820415019989012,
                        "leaf_count": 38
                    }
                },
                "right_child": {
                    "leaf_index": 1,
                    "leaf_value": -0.04711430756882934,
                    "leaf_weight": 7.89399617910385,
                    "leaf_count": 26
                }
            }
        },
        {
            "tree_index": 23,
            "num_leaves": 4,
            "num_cat": 0,
            "shrinkage": 0.05,
            "tree_structure": {
                "split_index": 0,
                "split_feature": 3,
                "split_gain": 26.3435001373291,
                "threshold": 1.6500000000000001,
                "decision_type": "<=",
                "default_left": true,
                "missing_type": "None",
                "internal_value": 0,
                "internal_weight": 0,
                "internal_count": 96,
                "left_child": {
                    "split_index": 1,
                    "split_feature": 2,
                    "split_gain": 0.3968529999256134,
                    "threshold": 4.250000000000001,
                    "decision_type": "<=",
                    "default_left": true,
                    "missing_type": "None",
                    "internal_value": -0.0375319,
                    "internal_weight": 16.9698,
                    "internal_count": 64,
                    "left_child": {
                        "split_index": 2,
                        "split_feature": 1,
                        "split_gain": 0.0018589500105008483,
                        "threshold": 3.0500000000000003,
                        "decision_type": "<=",
                        "default_left": true,
                        "missing_type": "None",
                        "internal_value": -0.0427716,
                        "internal_weight": 11.5472,
                        "internal_count": 45,
                        "left_child": {
                            "leaf_index": 0,
                            "leaf_value": -0.0434567266827858,
                            "leaf_weight": 5.330635517835622,
                            "leaf_count": 20
                        },
                        "right_child": {
                            "leaf_index": 3,
                            "leaf_value": -0.04218416766119514,
                            "leaf_weight": 6.216567978262901,
                            "leaf_count": 25
                        }
                    },
                    "right_child": {
                        "leaf_index": 2,
                        "leaf_value": -0.026373954411800793,
                        "leaf_weight": 5.422556847333907,
                        "leaf_count": 19
                    }
                },
                "right_child": {
                    "leaf_index": 1,
                    "leaf_value": 0.05929816588885384,
                    "leaf_weight": 11.984974741935728,
                    "leaf_count": 32
                }
            }
        },
        {
            "tree_index": 24,
            "num_leaves": 3,
            "num_cat": 0,
            "shrinkage": 0.05,
            "tree_structure": {
                "split_index": 0,
                "split_feature": 2,
                "split_gain": 28.27560043334961,
                "threshold": 2.4500000000000006,
                "decision_type": "<=",
                "default_left": true,
                "missing_type": "None",
                "internal_value": 0,
                "internal_weight": 0,
                "internal_count": 96,
                "left_child": {
                    "leaf_index": 0,
                    "leaf_value": 0.057881746149740926,
                    "leaf_weight": 11.715977281332018,
                    "leaf_count": 32
                },
                "right_child": {
                    "split_index": 1,
                    "split_feature": 3,
                    "split_gain": 0.006980330217629671,
                    "threshold": 1.6500000000000001,
                    "decision_type": "<=",
                    "default_left": true,
                    "missing_type": "None",
                    "internal_value": -0.0432732,
                    "internal_weight": 16.8356,
                    "internal_count": 64,
                    "left_child": {
                        "leaf_index": 1,
                        "leaf_value": -0.044236550789619,
                        "leaf_weight": 8.882991790771486,
                        "leaf_count": 32
                    },
                    "right_child": {
                        "leaf_index": 2,
                        "leaf_value": -0.04219721926075813,
                        "leaf_weight": 7.9526096880435935,
                        "leaf_count": 32
                    }
                }
            }
        },
        {
            "tree_index": 25,
            "num_leaves": 3,
            "num_cat": 0,
            "shrinkage": 0.05,
            "tree_structure": {
                "split_index": 0,
                "split_feature": 2,
                "split_gain": 8.51045036315918,
                "threshold": 5.050000000000001,
                "decision_type": "<=",
                "default_left": true,
                "missing_type": "None",
                "internal_value": 0,
                "internal_weight": 0,
                "internal_count": 96,
                "left_child": {
                    "split_index": 1,
                    "split_feature": 2,
                    "split_gain": 18.1658992767334,
                    "threshold": 2.4500000000000006,
                    "decision_type": "<=",
                    "default_left": true,
                    "missing_type": "None",
                    "internal_value": 0.0149514,
                    "internal_weight": 22.2221,
                    "internal_count": 70,
                    "left_child": {
                        "leaf_index": 0,
                        "leaf_value": -0.04310457165878409,
                        "leaf_weight": 8.388131141662603,
                        "leaf_count": 32
                    },
                    "right_child": {
                        "leaf_index": 2,
                        "leaf_value": 0.05015321144817317,
                        "leaf_weight": 13.834003806114195,
                        "leaf_count": 38
                    }
                },
                "right_child": {
                    "leaf_index": 1,
                    "leaf_value": -0.04622829777540624,
                    "leaf_weight": 7.638080954551696,
                    "leaf_count": 26
                }
            }
        },
        {
            "tree_index": 26,
            "num_leaves": 3,
            "num_cat": 0,
            "shrinkage": 0.05,
            "tree_structure": {
                "split_index": 0,
                "split_feature": 2,
                "split_gain": 24.17799949645996,
                "threshold": 4.750000000000001,
                "decision_type": "<=",
                "default_left": true,
                "missing_type": "None",
                "internal_value": 0,
                "internal_weight": 0,
                "internal_count": 96,
                "left_child": {
                    "split_index": 1,
                    "split_feature": 0,
                    "split_gain": 0.11830099672079086,
                    "threshold": 5.050000000000001,
                    "decision_type": "<=",
                    "default_left": true,
                    "missing_type": "None",
                    "internal_value": -0.0399402,
                    "internal_weight": 15.37,
                    "internal_count": 60,
                    "left_child": {
                        "leaf_index": 0,
                        "leaf_value": -0.034008347750033065,
                        "leaf_weight": 5.433674424886706,
                        "leaf_count": 22
                    },
                    "right_child": {
                        "leaf_index": 2,
                        "leaf_value": -0.04318407921662894,
                        "leaf_weight": 9.936341047286986,
                        "leaf_count": 38
                    }
                },
                "right_child": {
                    "leaf_index": 1,
                    "leaf_value": 0.05269953690399187,
                    "leaf_weight": 13.000385761260985,
                    "leaf_count": 36
                }
            }
        },
        {
            "tree_index": 27,
            "num_leaves": 3,
            "num_cat": 0,
            "shrinkage": 0.05,
            "tree_structure": {
                "split_index": 0,
                "split_feature": 2,
                "split_gain": 25.973400115966797,
                "threshold": 2.4500000000000006,
                "decision_type": "<=",
                "default_left": true,
                "missing_type": "None",
                "internal_value": 0,
                "internal_weight": 0,
                "internal_count": 96,
                "left_child": {
                    "leaf_index": 0,
                    "leaf_value": 0.05558181234045106,
                    "leaf_weight": 11.514621675014498,
                    "leaf_count": 32
                },
                "right_child": {
                    "split_index": 1,
                    "split_feature": 3,
                    "split_gain": 0.005860359873622656,
                    "threshold": 1.6500000000000001,
                    "decision_type": "<=",
                    "default_left": true,
                    "missing_type": "None",
                    "internal_value": -0.0426264,
                    "internal_weight": 16.2106,
                    "internal_count": 64,
                    "left_child": {
                        "leaf_index": 1,
                        "leaf_value": -0.04352381176287273,
                        "leaf_weight": 8.571752429008486,
                        "leaf_count": 32
                    },
                    "right_child": {
                        "leaf_index": 2,
                        "leaf_value": -0.041619306321642346,
                        "leaf_weight": 7.638894900679587,
                        "leaf_count": 32
                    }
                }
            }
        },
        {
            "tree_index": 28,
            "num_leaves": 3,
            "num_cat": 0,
            "shrinkage": 0.05,
            "tree_structure": {
                "split_index": 0,
                "split_feature": 2,
                "split_gain": 7.924870014190674,
                "threshold": 5.050000000000001,
                "decision_type": "<=",
                "default_left": true,
                "missing_type": "None",
                "internal_value": 0,
                "internal_weight": 0,
                "internal_count": 96,
                "left_child": {
                    "split_index": 1,
                    "split_feature": 2,
                    "split_gain": 16.456100463867188,
                    "threshold": 2.4500000000000006,
                    "decision_type": "<=",
                    "default_left": true,
                    "missing_type": "None",
                    "internal_value": 0.0145283,
                    "internal_weight": 21.8412,
                    "internal_count": 70,
                    "left_child": {
                        "leaf_index": 0,
                        "leaf_value": -0.04237868250308404,
                        "leaf_weight": 8.032042369246488,
                        "leaf_count": 32
                    },
                    "right_child": {
                        "leaf_index": 2,
                        "leaf_value": 0.04762810999953127,
                        "leaf_weight": 13.80915132164955,
                        "leaf_count": 38
                    }
                },
                "right_child": {
                    "leaf_index": 1,
                    "leaf_value": -0.045383900762323126,
                    "leaf_weight": 7.3860604763031,
                    "leaf_count": 26
                }
            }
        },
        {
            "tree_index": 29,
            "num_leaves": 3,
            "num_cat": 0,
            "shrinkage": 0.05,
            "tree_structure": {
                "split_index": 0,
                "split_feature": 2,
                "split_gain": 22.078100204467773,
                "threshold": 4.750000000000001,
                "decision_type": "<=",
                "default_left": true,
                "missing_type": "None",
                "internal_value": 0,
                "internal_weight": 0,
                "internal_count": 96,
                "left_child": {
                    "split_index": 1,
                    "split_feature": 0,
                    "split_gain": 0.12048599869012833,
                    "threshold": 5.050000000000001,
                    "decision_type": "<=",
                    "default_left": true,
                    "missing_type": "None",
                    "internal_value": -0.0392253,
                    "internal_weight": 14.8128,
                    "internal_count": 60,
                    "left_child": {
                        "leaf_index": 0,
                        "leaf_value": -0.03313048076680303,
                        "leaf_weight": 5.240248844027522,
                        "leaf_count": 22
                    },
                    "right_child": {
                        "leaf_index": 2,
                        "leaf_value": -0.04256169892855923,
                        "leaf_weight": 9.572526067495344,
                        "leaf_count": 38
                    }
                },
                "right_child": {
                    "leaf_index": 1,
                    "leaf_value": 0.05012080290322826,
                    "leaf_weight": 12.96715250611305,
                    "leaf_count": 36
                }
            }
        },
        {
            "tree_index": 30,
            "num_leaves": 3,
            "num_cat": 0,
            "shrinkage": 0.05,
            "tree_structure": {
                "split_index": 0,
                "split_feature": 2,
                "split_gain": 22.46769905090332,
                "threshold": 2.4500000000000006,
                "decision_type": "<=",
                "default_left": true,
                "missing_type": "None",
                "internal_value": 0,
                "internal_weight": 0,
                "internal_count": 92,
                "left_child": {
                    "leaf_index": 0,
                    "leaf_value": 0.05354166868969799,
                    "leaf_weight": 10.213852405548097,
                    "leaf_count": 29
                },
                "right_child": {
                    "split_index": 1,
                    "split_feature": 3,
                    "split_gain": 0.004889700096100569,
                    "threshold": 1.6500000000000001,
                    "decision_type": "<=",
                    "default_left": true,
                    "missing_type": "None",
                    "internal_value": -0.0420893,
                    "internal_weight": 15.4059,
                    "internal_count": 63,
                    "left_child": {
                        "leaf_index": 1,
                        "leaf_value": -0.042889148078433394,
                        "leaf_weight": 8.528754845261572,
                        "leaf_count": 33
                    },
                    "right_child": {
                        "leaf_index": 2,
                        "leaf_value": -0.04109727038122088,
                        "leaf_weight": 6.877121359109878,
                        "leaf_count": 30
                    }
                }
            }
        },
        {
            "tree_index": 31,
            "num_leaves": 3,
            "num_cat": 0,
            "shrinkage": 0.05,
            "tree_structure": {
                "split_index": 0,
                "split_feature": 2,
                "split_gain": 7.834330081939697,
                "threshold": 2.4500000000000006,
                "decision_type": "<=",
                "default_left": true,
                "missing_type": "None",
                "internal_value": 0,
                "internal_weight": 0,
                "internal_count": 92,
                "left_child": {
                    "leaf_index": 0,
                    "leaf_value": -0.04169447597437062,
                    "leaf_weight": 6.949270486831668,
                    "leaf_count": 29
                },
                "right_child": {
                    "split_index": 1,
                    "split_feature": 3,
                    "split_gain": 16.1968994140625,
                    "threshold": 1.6500000000000001,
                    "decision_type": "<=",
                    "default_left": true,
                    "missing_type": "None",
                    "internal_value": 0.0196738,
                    "internal_weight": 20.6674,
                    "internal_count": 63,
                    "left_child": {
                        "leaf_index": 1,
                        "leaf_value": 0.056570550085896704,
                        "leaf_weight": 12.194247871637346,
                        "leaf_count": 33
                    },
                    "right_child": {
                        "leaf_index": 2,
                        "leaf_value": -0.03342664428308764,
                        "leaf_weight": 8.473139971494673,
                        "leaf_count": 30
                    }
                }
            }
        },
        {
            "tree_index": 32,
            "num_leaves": 4,
            "num_cat": 0,
            "shrinkage": 0.05,
            "tree_structure": {
                "split_index": 0,
                "split_feature": 3,
                "split_gain": 20.59000015258789,
                "threshold": 1.6500000000000001,
                "decision_type": "<=",
                "default_left": true,
                "missing_type": "None",
                "internal_value": 0,
                "internal_weight": 0,
                "internal_count": 92,
                "left_child": {
                    "split_index": 1,
                    "split_feature": 0,
                    "split_gain": 0.07304579764604568,
                    "threshold": 5.950000000000001,
                    "decision_type": "<=",
                    "default_left": true,
                    "missing_type": "None",
                    "internal_value": -0.0387439,
                    "internal_weight": 15.0002,
                    "internal_count": 62,
                    "left_child": {
                        "split_index": 2,
                        "split_feature": 1,
                        "split_gain": 0.0022069700062274933,
                        "threshold": 3.0500000000000003,
                        "decision_type": "<=",
                        "default_left": true,
                        "missing_type": "None",
                        "internal_value": -0.0412484,
                        "internal_weight": 9.89955,
                        "internal_count": 43,
                        "left_child": {
                            "leaf_index": 0,
                            "leaf_value": -0.04200713929860409,
                            "leaf_weight": 4.8696018308401126,
                            "leaf_count": 20
                        },
                        "right_child": {
                            "leaf_index": 3,
                            "leaf_value": -0.04051383785387019,
                            "leaf_weight": 5.029945030808449,
                            "leaf_count": 23
                        }
                    },
                    "right_child": {
                        "leaf_index": 2,
                        "leaf_value": -0.03388299084426843,
                        "leaf_weight": 5.100623667240142,
                        "leaf_count": 19
                    }
                },
                "right_child": {
                    "leaf_index": 1,
                    "leaf_value": 0.05119165185656325,
                    "leaf_weight": 11.053747057914732,
                    "leaf_count": 30
                }
            }
        },
        {
            "tree_index": 33,
            "num_leaves": 3,
            "num_cat": 0,
            "shrinkage": 0.05,
            "tree_structure": {
                "split_index": 0,
                "split_feature": 2,
                "split_gain": 20.674299240112305,
                "threshold": 2.4500000000000006,
                "decision_type": "<=",
                "default_left": true,
                "missing_type": "None",
                "internal_value": 0,
                "internal_weight": 0,
                "internal_count": 92,
                "left_child": {
                    "leaf_index": 0,
                    "leaf_value": 0.051715110322679614,
                    "leaf_weight": 9.957969665527346,
                    "leaf_count": 29
                },
                "right_child": {
                    "split_index": 1,
                    "split_feature": 3,
                    "split_gain": 0.0038641199935227633,
                    "threshold": 1.6500000000000001,
                    "decision_type": "<=",
                    "default_left": true,
                    "missing_type": "None",
                    "internal_value": -0.0414955,
                    "internal_weight": 14.7764,
                    "internal_count": 63,
                    "left_child": {
                        "leaf_index": 1,
                        "leaf_value": -0.04222136277634449,
                        "leaf_weight": 8.182563617825506,
                        "leaf_count": 33
                    },
                    "right_child": {
                        "leaf_index": 2,
                        "leaf_value": -0.040594821729482554,
                        "leaf_weight": 6.5938809365034095,
                        "leaf_count": 30
                    }
                }
            }
        },
        {
            "tree_index": 34,
            "num_leaves": 3,
            "num_cat": 0,
            "shrinkage": 0.05,
            "tree_structure": {
                "split_index": 0,
                "split_feature": 2,
                "split_gain": 7.219329833984375,
                "threshold": 2.4500000000000006,
                "decision_type": "<=",
                "default_left": true,
                "missing_type": "None",
                "internal_value": 0,
                "internal_weight": 0,
                "internal_count": 92,
                "left_child": {
                    "leaf_index": 0,
                    "leaf_value": -0.04109118635446616,
                    "leaf_weight": 6.637607112526896,
                    "leaf_count": 29
                },
                "right_child": {
                    "split_index": 1,
                    "split_feature": 3,
                    "split_gain": 14.583999633789062,
                    "threshold": 1.6500000000000001,
                    "decision_type": "<=",
                    "default_left": true,
                    "missing_type": "None",
                    "internal_value": 0.0189899,
                    "internal_weight": 20.2645,
                    "internal_count": 63,
                    "left_child": {
                        "leaf_index": 1,
                        "leaf_value": 0.05402596873987752,
                        "leaf_weight": 12.046003848314287,
                        "leaf_count": 33
                    },
                    "right_child": {
                        "leaf_index": 2,
                        "leaf_value": -0.032363289402081254,
                        "leaf_weight": 8.218465656042097,
                        "leaf_count": 30
                    }
                }
            }
        },
        {
            "tree_index": 35,
            "num_leaves": 4,
            "num_cat": 0,
            "shrinkage": 0.05,
            "tree_structure": {
                "split_index": 0,
                "split_feature": 3,
                "split_gain": 18.755300521850586,
                "threshold": 1.6500000000000001,
                "decision_type": "<=",
                "default_left": true,
                "missing_type": "None",
                "internal_value": 0,
                "internal_weight": 0,
                "internal_count": 92,
                "left_child": {
                    "split_index": 1,
                    "split_feature": 0,
                    "split_gain": 0.07847020030021667,
                    "threshold": 5.950000000000001,
                    "decision_type": "<=",
                    "default_left": true,
                    "missing_type": "None",
                    "internal_value": -0.0380397,
                    "internal_weight": 14.3941,
                    "internal_count": 62,
                    "left_child": {
                        "split_index": 2,
                        "split_feature": 1,
                        "split_gain": 0.0018493200186640024,
                        "threshold": 3.0500000000000003,
                        "decision_type": "<=",
                        "default_left": true,
                        "missing_type": "None",
                        "internal_value": -0.0407046,
                        "internal_weight": 9.46315,
                        "internal_count": 43,
                        "left_child": {
                            "leaf_index": 0,
                            "leaf_value": -0.041413484166672065,
                            "leaf_weight": 4.664984688162805,
                            "leaf_count": 20
                        },
                        "right_child": {
                            "leaf_index": 3,
                            "leaf_value": -0.040015406987192165,
                            "leaf_weight": 4.79816435277462,
                            "leaf_count": 23
                        }
                    },
                    "right_child": {
                        "leaf_index": 2,
                        "leaf_value": -0.03292548179436282,
                        "leaf_weight": 4.930971160531043,
                        "leaf_count": 19
                    }
                },
                "right_child": {
                    "leaf_index": 1,
                    "leaf_value": 0.048846667839618746,
                    "leaf_weight": 10.925085127353666,
                    "leaf_count": 30
                }
            }
        },
        {
            "tree_index": 36,
            "num_leaves": 3,
            "num_cat": 0,
            "shrinkage": 0.05,
            "tree_structure": {
                "split_index": 0,
                "split_feature": 2,
                "split_gain": 19.05459976196289,
                "threshold": 2.4500000000000006,
                "decision_type": "<=",
                "default_left": true,
                "missing_type": "None",
                "internal_value": 0,
                "internal_weight": 0,
                "internal_count": 92,
                "left_child": {
                    "leaf_index": 0,
                    "leaf_value": 0.05009358531314,
                    "leaf_weight": 9.676320105791094,
                    "leaf_count": 29
                },
                "right_child": {
                    "split_index": 1,
                    "split_feature": 3,
                    "split_gain": 0.0030532600358128548,
                    "threshold": 1.6500000000000001,
                    "decision_type": "<=",
                    "default_left": true,
                    "missing_type": "None",
                    "internal_value": -0.0409462,
                    "internal_weight": 14.1554,
                    "internal_count": 63,
                    "left_child": {
                        "leaf_index": 1,
                        "leaf_value": -0.04160530783041941,
                        "leaf_weight": 7.8396222293376905,
                        "leaf_count": 33
                    },
                    "right_child": {
                        "leaf_index": 2,
                        "leaf_value": -0.04012806640000441,
                        "leaf_weight": 6.315793916583061,
                        "leaf_count": 30
                    }
                }
            }
        },
        {
            "tree_index": 37,
            "num_leaves": 3,
            "num_cat": 0,
            "shrinkage": 0.05,
            "tree_structure": {
                "split_index": 0,
                "split_feature": 2,
                "split_gain": 6.659299850463867,
                "threshold": 2.4500000000000006,
                "decision_type": "<=",
                "default_left": true,
                "missing_type": "None",
                "internal_value": 0,
                "internal_weight": 0,
                "internal_count": 92,
                "left_child": {
                    "leaf_index": 0,
                    "leaf_value": -0.04053516114855147,
                    "leaf_weight": 6.331182569265368,
                    "leaf_count": 29
                },
                "right_child": {
                    "split_index": 1,
                    "split_feature": 3,
                    "split_gain": 13.159500122070312,
                    "threshold": 1.6500000000000001,
                    "decision_type": "<=",
                    "default_left": true,
                    "missing_type": "None",
                    "internal_value": 0.0183679,
                    "internal_weight": 19.8193,
                    "internal_count": 63,
                    "left_child": {
                        "leaf_index": 1,
                        "leaf_value": 0.05176646986737369,
                        "leaf_weight": 11.853689163923265,
                        "leaf_count": 33
                    },
                    "right_child": {
                        "leaf_index": 2,
                        "leaf_value": -0.031332822981391756,
                        "leaf_weight": 7.965611428022384,
                        "leaf_count": 30
                    }
                }
            }
        },
        {
            "tree_index": 38,
            "num_leaves": 4,
            "num_cat": 0,
            "shrinkage": 0.05,
            "tree_structure": {
                "split_index": 0,
                "split_feature": 3,
                "split_gain": 17.105499267578125,
                "threshold": 1.6500000000000001,
                "decision_type": "<=",
                "default_left": true,
                "missing_type": "None",
                "internal_value": 0,
                "internal_weight": 0,
                "internal_count": 92,
                "left_child": {
                    "split_index": 1,
                    "split_feature": 0,
                    "split_gain": 0.08407360315322876,
                    "threshold": 5.950000000000001,
                    "decision_type": "<=",
                    "default_left": true,
                    "missing_type": "None",
                    "internal_value": -0.0373665,
                    "internal_weight": 13.7969,
                    "internal_count": 62,
                    "left_child": {
                        "split_index": 2,
                        "split_feature": 1,
                        "split_gain": 0.001550890039652586,
                        "threshold": 3.0500000000000003,
                        "decision_type": "<=",
                        "default_left": true,
                        "missing_type": "None",
                        "internal_value": -0.0402004,
                        "internal_weight": 9.03422,
                        "internal_count": 43,
                        "left_child": {
                            "leaf_index": 0,
                            "leaf_value": -0.04086341686776588,
                            "leaf_weight": 4.462974026799204,
                            "leaf_count": 20
                        },
                        "right_child": {
                            "leaf_index": 3,
                            "leaf_value": -0.039553099896242117,
                            "leaf_weight": 4.571243062615395,
                            "leaf_count": 23
                        }
                    },
                    "right_child": {
                        "leaf_index": 2,
                        "leaf_value": -0.031990828450887715,
                        "leaf_weight": 4.762633547186851,
                        "leaf_count": 19
                    }
                },
                "right_child": {
                    "leaf_index": 1,
                    "leaf_value": 0.04672968159051154,
                    "leaf_weight": 10.764586001634596,
                    "leaf_count": 30
                }
            }
        },
        {
            "tree_index": 39,
            "num_leaves": 3,
            "num_cat": 0,
            "shrinkage": 0.05,
            "tree_structure": {
                "split_index": 0,
                "split_feature": 2,
                "split_gain": 17.587200164794922,
                "threshold": 2.4500000000000006,
                "decision_type": "<=",
                "default_left": true,
                "missing_type": "None",
                "internal_value": 0,
                "internal_weight": 0,
                "internal_count": 92,
                "left_child": {
                    "leaf_index": 0,
                    "leaf_value": 0.04864781035366065,
                    "leaf_weight": 9.374444961547853,
                    "leaf_count": 29
                },
                "right_child": {
                    "split_index": 1,
                    "split_feature": 3,
                    "split_gain": 0.0024116900749504566,
                    "threshold": 1.6500000000000001,
                    "decision_type": "<=",
                    "default_left": true,
                    "missing_type": "None",
                    "internal_value": -0.0404377,
                    "internal_weight": 13.5453,
                    "internal_count": 63,
                    "left_child": {
                        "leaf_index": 1,
                        "leaf_value": -0.041036510776166824,
                        "leaf_weight": 7.5014936178922635,
                        "leaf_count": 33
                    },
                    "right_child": {
                        "leaf_index": 2,
                        "leaf_value": -0.03969437482960642,
                        "leaf_weight": 6.0437681674957275,
                        "leaf_count": 30
                    }
                }
            }
        },
        {
            "tree_index": 40,
            "num_leaves": 3,
            "num_cat": 0,
            "shrinkage": 0.05,
            "tree_structure": {
                "split_index": 0,
                "split_feature": 2,
                "split_gain": 6.148330211639404,
                "threshold": 2.4500000000000006,
                "decision_type": "<=",
                "default_left": true,
                "missing_type": "None",
                "internal_value": 0,
                "internal_weight": 0,
                "internal_count": 92,
                "left_child": {
                    "leaf_index": 0,
                    "leaf_value": -0.040022247919599185,
                    "leaf_weight": 6.031134173274043,
                    "leaf_count": 29
                },
                "right_child": {
                    "split_index": 1,
                    "split_feature": 3,
                    "split_gain": 11.895099639892578,
                    "threshold": 1.6500000000000001,
                    "decision_type": "<=",
                    "default_left": true,
                    "missing_type": "None",
                    "internal_value": 0.0177994,
                    "internal_weight": 19.3403,
                    "internal_count": 63,
                    "left_child": {
                        "leaf_index": 1,
                        "leaf_value": 0.04974596289954714,
                        "leaf_weight": 11.62449896335602,
                        "leaf_count": 33
                    },
                    "right_child": {
                        "leaf_index": 2,
                        "leaf_value": -0.03033094874196214,
                        "leaf_weight": 7.71579161286354,
                        "leaf_count": 30
                    }
                }
            }
        },
        {
            "tree_index": 41,
            "num_leaves": 4,
            "num_cat": 0,
            "shrinkage": 0.05,
            "tree_structure": {
                "split_index": 0,
                "split_feature": 3,
                "split_gain": 15.616999626159668,
                "threshold": 1.6500000000000001,
                "decision_type": "<=",
                "default_left": true,
                "missing_type": "None",
                "internal_value": 0,
                "internal_weight": 0,
                "internal_count": 92,
                "left_child": {
                    "split_index": 1,
                    "split_feature": 1,
                    "split_gain": 0.1236179992556572,
                    "threshold": 2.85,
                    "decision_type": "<=",
                    "default_left": true,
                    "missing_type": "None",
                    "internal_value": -0.0367207,
                    "internal_weight": 13.2106,
                    "internal_count": 62,
                    "left_child": {
                        "leaf_index": 0,
                        "leaf_value": -0.029824602863224588,
                        "leaf_weight": 4.355833441019061,
                        "leaf_count": 19
                    },
                    "right_child": {
                        "split_index": 2,
                        "split_feature": 3,
                        "split_gain": 0.0035031200386583805,
                        "threshold": 0.35000000000000003,
                        "decision_type": "<=",
                        "default_left": true,
                        "missing_type": "None",
                        "internal_value": -0.040113,
                        "internal_weight": 8.854800000000001,
                        "internal_count": 43,
                        "left_child": {
                            "leaf_index": 2,
                            "leaf_value": -0.03914595056014856,
                            "leaf_weight": 4.551306322216986,
                            "leaf_count": 24
                        },
                        "right_child": {
                            "leaf_index": 3,
                            "leaf_value": -0.041135744504832816,
                            "leaf_weight": 4.303489163517952,
                            "leaf_count": 19
                        }
                    }
                },
                "right_child": {
                    "leaf_index": 1,
                    "leaf_value": 0.04480478520891168,
                    "leaf_weight": 10.577684730291365,
                    "leaf_count": 30
                }
            }
        },
        {
            "tree_index": 42,
            "num_leaves": 3,
            "num_cat": 0,
            "shrinkage": 0.05,
            "tree_structure": {
                "split_index": 0,
                "split_feature": 2,
                "split_gain": 16.256000518798828,
                "threshold": 2.4500000000000006,
                "decision_type": "<=",
                "default_left": true,
                "missing_type": "None",
                "internal_value": 0,
                "internal_weight": 0,
                "internal_count": 92,
                "left_child": {
                    "leaf_index": 0,
                    "leaf_value": 0.04735605851377314,
                    "leaf_weight": 9.057606399059297,
                    "leaf_count": 29
                },
                "right_child": {
                    "split_index": 1,
                    "split_feature": 3,
                    "split_gain": 0.00190915004350245,
                    "threshold": 1.6500000000000001,
                    "decision_type": "<=",
                    "default_left": true,
                    "missing_type": "None",
                    "internal_value": -0.0399676,
                    "internal_weight": 12.9485,
                    "internal_count": 63,
                    "left_child": {
                        "leaf_index": 1,
                        "leaf_value": -0.04051263520353977,
                        "leaf_weight": 7.1699187457561475,
                        "leaf_count": 33
                    },
                    "right_child": {
                        "leaf_index": 2,
                        "leaf_value": -0.03929130684863728,
                        "leaf_weight": 5.778557524085045,
                        "leaf_count": 30
                    }
                }
            }
        },
        {
            "tree_index": 43,
            "num_leaves": 3,
            "num_cat": 0,
            "shrinkage": 0.05,
            "tree_structure": {
                "split_index": 0,
                "split_feature": 2,
                "split_gain": 5.680620193481445,
                "threshold": 2.4500000000000006,
                "decision_type": "<=",
                "default_left": true,
                "missing_type": "None",
                "internal_value": 0,
                "internal_weight": 0,
                "internal_count": 92,
                "left_child": {
                    "leaf_index": 0,
                    "leaf_value": -0.03954804665922011,
                    "leaf_weight": 5.7381977587938335,
                    "leaf_count": 29
                },
                "right_child": {
                    "split_index": 1,
                    "split_feature": 3,
                    "split_gain": 10.766599655151367,
                    "threshold": 1.6500000000000001,
                    "decision_type": "<=",
                    "default_left": true,
                    "missing_type": "None",
                    "internal_value": 0.0172751,
                    "internal_weight": 18.836,
                    "internal_count": 63,
                    "left_child": {
                        "leaf_index": 1,
                        "leaf_value": 0.047921023969073266,
                        "leaf_weight": 11.365992099046709,
                        "leaf_count": 33
                    },
                    "right_child": {
                        "leaf_index": 2,
                        "leaf_value": -0.029353873533548215,
                        "leaf_weight": 7.470053404569625,
                        "leaf_count": 30
                    }
                }
            }
        },
        {
            "tree_index": 44,
            "num_leaves": 4,
            "num_cat": 0,
            "shrinkage": 0.05,
            "tree_structure": {
                "split_index": 0,
                "split_feature": 3,
                "split_gain": 14.269399642944336,
                "threshold": 1.6500000000000001,
                "decision_type": "<=",
                "default_left": true,
                "missing_type": "None",
                "internal_value": 0,
                "internal_weight": 0,
                "internal_count": 92,
                "left_child": {
                    "split_index": 1,
                    "split_feature": 1,
                    "split_gain": 0.1290459930896759,
                    "threshold": 2.85,
                    "decision_type": "<=",
                    "default_left": true,
                    "missing_type": "None",
                    "internal_value": -0.0360962,
                    "internal_weight": 12.6383,
                    "internal_count": 62,
                    "left_child": {
                        "leaf_index": 0,
                        "leaf_value": -0.028928857294150723,
                        "leaf_weight": 4.195379659533503,
                        "leaf_count": 19
                    },
                    "right_child": {
                        "split_index": 2,
                        "split_feature": 3,
                        "split_gain": 0.0029506199061870575,
                        "threshold": 0.35000000000000003,
                        "decision_type": "<=",
                        "default_left": true,
                        "missing_type": "None",
                        "internal_value": -0.0396577,
                        "internal_weight": 8.44295,
                        "internal_count": 43,
                        "left_child": {
                            "leaf_index": 2,
                            "leaf_value": -0.03874587601404164,
                            "leaf_weight": 4.326030671596525,
                            "leaf_count": 24
                        },
                        "right_child": {
                            "leaf_index": 3,
                            "leaf_value": -0.0406158797258386,
                            "leaf_weight": 4.1169194132089615,
                            "leaf_count": 19
                        }
                    }
                },
                "right_child": {
                    "leaf_index": 1,
                    "leaf_value": 0.043042657950960156,
                    "leaf_weight": 10.369296073913572,
                    "leaf_count": 30
                }
            }
        },
        {
            "tree_index": 45,
            "num_leaves": 3,
            "num_cat": 0,
            "shrinkage": 0.05,
            "tree_structure": {
                "split_index": 0,
                "split_feature": 2,
                "split_gain": 17.003799438476562,
                "threshold": 2.4500000000000006,
                "decision_type": "<=",
                "default_left": true,
                "missing_type": "None",
                "internal_value": 0,
                "internal_weight": 0,
                "internal_count": 98,
                "left_child": {
                    "leaf_index": 0,
                    "leaf_value": 0.04617845905412595,
                    "leaf_weight": 11.132891714572908,
                    "leaf_count": 37
                },
                "right_child": {
                    "split_index": 1,
                    "split_feature": 3,
                    "split_gain": 0.0017539700493216515,
                    "threshold": 1.6500000000000001,
                    "decision_type": "<=",
                    "default_left": true,
                    "missing_type": "None",
                    "internal_value": -0.0395776,
                    "internal_weight": 12.0228,
                    "internal_count": 61,
                    "left_child": {
                        "leaf_index": 1,
                        "leaf_value": -0.04013439982621192,
                        "leaf_weight": 6.498380407691,
                        "leaf_count": 31
                    },
                    "right_child": {
                        "leaf_index": 2,
                        "leaf_value": -0.038922582567601366,
                        "leaf_weight": 5.524434387683868,
                        "leaf_count": 30
                    }
                }
            }
        },
        {
            "tree_index": 46,
            "num_leaves": 3,
            "num_cat": 0,
            "shrinkage": 0.05,
            "tree_structure": {
                "split_index": 0,
                "split_feature": 3,
                "split_gain": 6.024710178375244,
                "threshold": 1.6500000000000001,
                "decision_type": "<=",
                "default_left": true,
                "missing_type": "None",
                "internal_value": 0,
                "internal_weight": 0,
                "internal_count": 98,
                "left_child": {
                    "split_index": 1,
                    "split_feature": 2,
                    "split_gain": 12.173199653625488,
                    "threshold": 2.4500000000000006,
                    "decision_type": "<=",
                    "default_left": true,
                    "missing_type": "None",
                    "internal_value": 0.01215,
                    "internal_weight": 17.3874,
                    "internal_count": 68,
                    "left_child": {
                        "leaf_index": 0,
                        "leaf_value": -0.03909979016873683,
                        "leaf_weight": 6.953225001692778,
                        "leaf_count": 37
                    },
                    "right_child": {
                        "leaf_index": 2,
                        "leaf_value": 0.04630226605662782,
                        "leaf_weight": 10.434180706739424,
                        "leaf_count": 31
                    }
                },
                "right_child": {
                    "leaf_index": 1,
                    "leaf_value": -0.04221598248867586,
                    "leaf_weight": 7.208614528179168,
                    "leaf_count": 30
                }
            }
        },
        {
            "tree_index": 47,
            "num_leaves": 4,
            "num_cat": 0,
            "shrinkage": 0.05,
            "tree_structure": {
                "split_index": 0,
                "split_feature": 3,
                "split_gain": 17.223100662231445,
                "threshold": 1.6500000000000001,
                "decision_type": "<=",
                "default_left": true,
                "missing_type": "None",
                "internal_value": 0,
                "internal_weight": 0,
                "internal_count": 98,
                "left_child": {
                    "split_index": 1,
                    "split_feature": 0,
                    "split_gain": 0.11959899961948395,
                    "threshold": 5.8500000000000005,
                    "decision_type": "<=",
                    "default_left": true,
                    "missing_type": "None",
                    "internal_value": -0.0356751,
                    "internal_weight": 13.0216,
                    "internal_count": 68,
                    "left_child": {
                        "split_index": 2,
                        "split_feature": 1,
                        "split_gain": 0.0009033359820023179,
                        "threshold": 3.0500000000000003,
                        "decision_type": "<=",
                        "default_left": true,
                        "missing_type": "None",
                        "internal_value": -0.0387909,
                        "internal_weight": 9.15209,
                        "internal_count": 51,
                        "left_child": {
                            "leaf_index": 0,
                            "leaf_value": -0.03935008470711944,
                            "leaf_weight": 4.0367318391799945,
                            "leaf_count": 21
                        },
                        "right_child": {
                            "leaf_index": 3,
                            "leaf_value": -0.038349619782596434,
                            "leaf_weight": 5.115361526608467,
                            "leaf_count": 30
                        }
                    },
                    "right_child": {
                        "leaf_index": 2,
                        "leaf_value": -0.02830570812596635,
